{
  "version": "signal-lab-valence_binary/0.1.0",
  "featureNames": [
    "durationSec",
    "inputRms",
    "meanRms",
    "medianRms",
    "rmsEnergy",
    "peakAmplitude",
    "activeFrameRatio",
    "quietFrameRatio",
    "clippedFrameRatio",
    "silenceRatio",
    "noiseFloorRms",
    "signalToNoiseProxy",
    "zeroCrossingRate",
    "spectralCentroidHz",
    "spectralBandwidthHz",
    "spectralRolloffHz",
    "spectralFlatness",
    "spectralFlux",
    "breakCount",
    "pauseCount",
    "avgPauseLengthSec",
    "microBreakRatio",
    "voicingContinuityCoverage",
    "clarityScore",
    "breathinessProxy",
    "shimmerProxy",
    "amplitudeStability",
    "musicalityScore",
    "controlledExpressionScore",
    "residualInstabilityScore",
    "residualPitchInstability",
    "residualAmplitudeInstability",
    "isSilent",
    "isTooFaint",
    "pitchMeanHz",
    "pitchMeanHz__present",
    "pitchVariance",
    "pitchVariance__present",
    "pitchRangeSemitones",
    "pitchRangeSemitones__present",
    "pitchStability",
    "pitchStability__present",
    "jitter",
    "jitter__present",
    "pitchDrift",
    "pitchDrift__present",
    "pitchCoverage",
    "pitchCoverage__present",
    "longestStableSegmentSec",
    "longestStableSegmentSec__present",
    "onsetDelaySec",
    "onsetDelaySec__present",
    "smoothnessScore",
    "smoothnessScore__present",
    "vibratoRegularity",
    "vibratoRegularity__present",
    "attackConsistency",
    "attackConsistency__present"
  ],
  "labels": [
    "negative_valence",
    "positive_valence"
  ],
  "standardizer": {
    "mean": [
      4.178553989361714,
      0.023172705553322702,
      0.014525937673801045,
      0.005583662024157366,
      0.023172705553322702,
      0.20841470584343255,
      0.3097123313105505,
      0.6902876686894488,
      0.00000967117988394584,
      0.8553854000601464,
      0.00003422700831520298,
      77.1127272744434,
      0.06517678365843281,
      2222.6259116398187,
      2717.234144386,
      1364.9813595806859,
      0.002433012451735864,
      0.2590991540902923,
      2.7882978723404257,
      1.2420212765957446,
      0.16441702127659683,
      0.029715319692026506,
      0.22426234420357297,
      0.2724490993185382,
      0.002433012451735864,
      0.48896126249792465,
      0.5345464378231174,
      0.11120335220519506,
      0.6717265789478805,
      0.8160302017236234,
      0.7956894051291152,
      0.9852869450896536,
      0.08829787234042553,
      0.35425531914893615,
      224.51666150440877,
      0.8526595744680852,
      1640.107520164114,
      0.8526595744680852,
      5.362858804748074,
      0.8526595744680852,
      0.7352365073066883,
      0.8526595744680852,
      0.08527825210429607,
      0.8526595744680852,
      2.6902694495270065,
      0.8526595744680852,
      0.2749329833892837,
      1,
      0.23693617021276558,
      0.8526595744680852,
      1.0057021276595575,
      0.8861702127659574,
      0.14317302086998587,
      0.8526595744680852,
      0.1726945607335998,
      0.7542553191489362,
      0.10652276047604402,
      0.7382978723404255
    ],
    "std": [
      0.6063055849379199,
      0.022907632251924298,
      0.013814978490044275,
      0.006562754332704358,
      0.022907632251924298,
      0.2164984857032922,
      0.18690176102871567,
      0.1869017610287159,
      0.00041922082788574833,
      0.11192506880672999,
      0.00008081622533464304,
      35.40889209438079,
      0.018461233230402673,
      1002.7894003273452,
      980.0263636982446,
      856.1408096639794,
      0.0032889349031831354,
      0.10527865489816034,
      1.8883380277420374,
      1.2210216160172354,
      0.1855253663363813,
      0.02821994456542353,
      0.17704134583089376,
      0.170200052310375,
      0.0032889349031831354,
      0.26296281801130283,
      0.27258881427006054,
      0.09580018794893366,
      0.19990938434582395,
      0.1824358698996708,
      0.35916440876848504,
      0.0903291481399165,
      0.28372761247466904,
      0.4782870351615454,
      121.84815825626593,
      0.35444495275852195,
      2632.3837342488346,
      0.35444495275852195,
      4.15193745794603,
      0.35444495275852195,
      0.31532049586161803,
      0.35444495275852195,
      0.08148649334664824,
      0.35444495275852195,
      3.2485364344944405,
      0.35444495275852195,
      0.16984992068931076,
      1,
      0.17520558189098365,
      0.35444495275852195,
      0.4196876201487322,
      0.3176044186913847,
      0.10318274594032843,
      0.35444495275852195,
      0.18224809740325848,
      0.4305278535524314,
      0.2185310571708464,
      0.4395612858726629
    ]
  },
  "weights": [
    [
      -0.1741697074988418,
      -0.02217254006184502,
      -0.05415322264741165,
      0.1484286759316407,
      -0.02217254006184502,
      0.3659836433515237,
      -0.21971453270148708,
      0.21971453270148808,
      0.034669977288046216,
      0.16936121688539854,
      0.23223606670802202,
      0.09083523869930282,
      0.05637746563280398,
      -0.165684912705286,
      0.262002475549288,
      0.02749810065364739,
      0.11401298507290017,
      0.1948281320233383,
      0.27213660661463435,
      0.05086668094370892,
      0.14840398013672645,
      -0.10803317461070569,
      0.41379611971054914,
      0.09245541992325115,
      0.11401298507290017,
      0.4184047733202077,
      0.14710663620085956,
      -0.40463673224613006,
      0.25698099298256305,
      -0.09354823261185642,
      -0.17956102951404607,
      0.014550168680865444,
      0.2278943239582283,
      -0.11664345734703813,
      -0.20115527223978502,
      0.0180994426314133,
      0.1341869057319998,
      0.0180994426314133,
      -0.04853485354950702,
      0.0180994426314133,
      0.20884728257981847,
      0.0180994426314133,
      0.059356902575509844,
      0.0180994426314133,
      0.10955378004572043,
      0.0180994426314133,
      0.10708859276941546,
      0,
      -0.1499582106000141,
      0.0180994426314133,
      0.40255808950872635,
      -0.34419879687966776,
      -0.03890747377101046,
      0.0180994426314133,
      0.03658249189230858,
      0.1086760511363009,
      -0.011591466553851735,
      0.1446124218950341
    ],
    [
      0.1741697074988422,
      0.022172540061845075,
      0.05415322264741203,
      -0.14842867593164044,
      0.022172540061845075,
      -0.3659836433515232,
      0.21971453270148697,
      -0.2197145327014878,
      -0.03466997728804618,
      -0.16936121688539849,
      -0.23223606670802208,
      -0.09083523869930314,
      -0.05637746563280394,
      0.1656849127052861,
      -0.26200247554928824,
      -0.027498100653647543,
      -0.11401298507290043,
      -0.19482813202333762,
      -0.27213660661463457,
      -0.050866680943708706,
      -0.1484039801367265,
      0.10803317461070586,
      -0.41379611971054925,
      -0.09245541992325099,
      -0.11401298507290043,
      -0.41840477332020765,
      -0.1471066362008591,
      0.40463673224613056,
      -0.2569809929825633,
      0.09354823261185599,
      0.17956102951404648,
      -0.014550168680865502,
      -0.22789432395822878,
      0.11664345734703802,
      0.201155272239785,
      -0.018099442631413235,
      -0.13418690573199957,
      -0.018099442631413235,
      0.04853485354950685,
      -0.018099442631413235,
      -0.20884728257981858,
      -0.018099442631413235,
      -0.05935690257550973,
      -0.018099442631413235,
      -0.10955378004572032,
      -0.018099442631413235,
      -0.1070885927694156,
      0,
      0.14995821060001427,
      -0.018099442631413235,
      -0.40255808950872646,
      0.3441987968796675,
      0.03890747377101042,
      -0.018099442631413235,
      -0.03658249189230862,
      -0.10867605113630104,
      0.01159146655385165,
      -0.14461242189503404
    ]
  ],
  "bias": [
    -0.017839432834290438,
    0.017839432834290354
  ],
  "l2": 0.001,
  "iterations": 400,
  "learningRate": 0.5,
  "trainCount": 1880,
  "classWeighted": true
}