{
  "version": "signal-lab-arousal_binary/0.1.0",
  "featureNames": [
    "durationSec",
    "inputRms",
    "meanRms",
    "medianRms",
    "rmsEnergy",
    "peakAmplitude",
    "activeFrameRatio",
    "quietFrameRatio",
    "clippedFrameRatio",
    "silenceRatio",
    "noiseFloorRms",
    "signalToNoiseProxy",
    "zeroCrossingRate",
    "spectralCentroidHz",
    "spectralBandwidthHz",
    "spectralRolloffHz",
    "spectralFlatness",
    "spectralFlux",
    "breakCount",
    "pauseCount",
    "avgPauseLengthSec",
    "microBreakRatio",
    "voicingContinuityCoverage",
    "clarityScore",
    "breathinessProxy",
    "shimmerProxy",
    "amplitudeStability",
    "musicalityScore",
    "controlledExpressionScore",
    "residualInstabilityScore",
    "residualPitchInstability",
    "residualAmplitudeInstability",
    "isSilent",
    "isTooFaint",
    "pitchMeanHz",
    "pitchMeanHz__present",
    "pitchVariance",
    "pitchVariance__present",
    "pitchRangeSemitones",
    "pitchRangeSemitones__present",
    "pitchStability",
    "pitchStability__present",
    "jitter",
    "jitter__present",
    "pitchDrift",
    "pitchDrift__present",
    "pitchCoverage",
    "pitchCoverage__present",
    "longestStableSegmentSec",
    "longestStableSegmentSec__present",
    "onsetDelaySec",
    "onsetDelaySec__present",
    "smoothnessScore",
    "smoothnessScore__present",
    "vibratoRegularity",
    "vibratoRegularity__present",
    "attackConsistency",
    "attackConsistency__present"
  ],
  "labels": [
    "low_arousal",
    "high_arousal"
  ],
  "standardizer": {
    "mean": [
      4.178553989361714,
      0.023172705553322702,
      0.014525937673801045,
      0.005583662024157366,
      0.023172705553322702,
      0.20841470584343255,
      0.3097123313105505,
      0.6902876686894488,
      0.00000967117988394584,
      0.8553854000601464,
      0.00003422700831520298,
      77.1127272744434,
      0.06517678365843281,
      2222.6259116398187,
      2717.234144386,
      1364.9813595806859,
      0.002433012451735864,
      0.2590991540902923,
      2.7882978723404257,
      1.2420212765957446,
      0.16441702127659683,
      0.029715319692026506,
      0.22426234420357297,
      0.2724490993185382,
      0.002433012451735864,
      0.48896126249792465,
      0.5345464378231174,
      0.11120335220519506,
      0.6717265789478805,
      0.8160302017236234,
      0.7956894051291152,
      0.9852869450896536,
      0.08829787234042553,
      0.35425531914893615,
      224.51666150440877,
      0.8526595744680852,
      1640.107520164114,
      0.8526595744680852,
      5.362858804748074,
      0.8526595744680852,
      0.7352365073066883,
      0.8526595744680852,
      0.08527825210429607,
      0.8526595744680852,
      2.6902694495270065,
      0.8526595744680852,
      0.2749329833892837,
      1,
      0.23693617021276558,
      0.8526595744680852,
      1.0057021276595575,
      0.8861702127659574,
      0.14317302086998587,
      0.8526595744680852,
      0.1726945607335998,
      0.7542553191489362,
      0.10652276047604402,
      0.7382978723404255
    ],
    "std": [
      0.6063055849379199,
      0.022907632251924298,
      0.013814978490044275,
      0.006562754332704358,
      0.022907632251924298,
      0.2164984857032922,
      0.18690176102871567,
      0.1869017610287159,
      0.00041922082788574833,
      0.11192506880672999,
      0.00008081622533464304,
      35.40889209438079,
      0.018461233230402673,
      1002.7894003273452,
      980.0263636982446,
      856.1408096639794,
      0.0032889349031831354,
      0.10527865489816034,
      1.8883380277420374,
      1.2210216160172354,
      0.1855253663363813,
      0.02821994456542353,
      0.17704134583089376,
      0.170200052310375,
      0.0032889349031831354,
      0.26296281801130283,
      0.27258881427006054,
      0.09580018794893366,
      0.19990938434582395,
      0.1824358698996708,
      0.35916440876848504,
      0.0903291481399165,
      0.28372761247466904,
      0.4782870351615454,
      121.84815825626593,
      0.35444495275852195,
      2632.3837342488346,
      0.35444495275852195,
      4.15193745794603,
      0.35444495275852195,
      0.31532049586161803,
      0.35444495275852195,
      0.08148649334664824,
      0.35444495275852195,
      3.2485364344944405,
      0.35444495275852195,
      0.16984992068931076,
      1,
      0.17520558189098365,
      0.35444495275852195,
      0.4196876201487322,
      0.3176044186913847,
      0.10318274594032843,
      0.35444495275852195,
      0.18224809740325848,
      0.4305278535524314,
      0.2185310571708464,
      0.4395612858726629
    ]
  },
  "weights": [
    [
      0.6149262574607318,
      -0.10429411272527221,
      -0.1561310220793925,
      0.1556472963493998,
      -0.10429411272527221,
      -0.44267873218109066,
      -0.28133453622553056,
      0.28133453622552973,
      -0.0029742935387420595,
      0.21161077821342128,
      0.06156885639726836,
      -0.012558130662703209,
      0.12193087646017846,
      -0.20880343997991505,
      0.10959124391588715,
      -0.21944455543348385,
      0.0729106207768381,
      -0.23287585071011446,
      -0.004842495123678984,
      -0.06434989694944482,
      -0.05689299946257931,
      0.02311895750726426,
      0.21462984311039696,
      -0.19844255401101477,
      0.0729106207768381,
      -0.060351152434100344,
      -0.2770359988047345,
      0.1589729922483421,
      -0.18100379422826618,
      0.1280999586948468,
      0.19589744788360924,
      0.13929649540898764,
      0.014179446683157026,
      0.11842929434482587,
      0.1588521028193604,
      -0.049764601087349605,
      0.21764382588517225,
      -0.049764601087349605,
      -0.22049921208973017,
      -0.049764601087349605,
      -0.017985527828712357,
      -0.049764601087349605,
      0.10707541018082994,
      -0.049764601087349605,
      0.027012715655669182,
      -0.049764601087349605,
      -0.15991220774117343,
      0,
      0.12578219949424668,
      -0.049764601087349605,
      -0.2761196135636329,
      0.32824061604753413,
      0.5200448305017746,
      -0.049764601087349605,
      -0.08299180227891749,
      0.06873083303003305,
      0.02824540122278811,
      -0.023976265050780203
    ],
    [
      -0.6149262574607318,
      0.10429411272527217,
      0.1561310220793926,
      -0.1556472963493998,
      0.10429411272527217,
      0.44267873218109044,
      0.28133453622553045,
      -0.28133453622552945,
      0.0029742935387420547,
      -0.2116107782134213,
      -0.06156885639726836,
      0.012558130662703126,
      -0.12193087646017843,
      0.2088034399799152,
      -0.10959124391588702,
      0.21944455543348407,
      -0.07291062077683803,
      0.23287585071011446,
      0.004842495123678845,
      0.06434989694944473,
      0.05689299946257939,
      -0.023118957507264202,
      -0.21462984311039712,
      0.19844255401101452,
      -0.07291062077683803,
      0.06035115243410025,
      0.2770359988047348,
      -0.158972992248342,
      0.18100379422826643,
      -0.1280999586948466,
      -0.1958974478836094,
      -0.13929649540898778,
      -0.014179446683157014,
      -0.11842929434482584,
      -0.15885210281936024,
      0.04976460108734966,
      -0.21764382588517225,
      0.04976460108734966,
      0.22049921208973033,
      0.04976460108734966,
      0.017985527828712163,
      0.04976460108734966,
      -0.10707541018082985,
      0.04976460108734966,
      -0.0270127156556692,
      0.04976460108734966,
      0.15991220774117323,
      0,
      -0.1257821994942467,
      0.04976460108734966,
      0.2761196135636326,
      -0.3282406160475343,
      -0.5200448305017747,
      0.04976460108734966,
      0.0829918022789175,
      -0.06873083303003302,
      -0.028245401222788027,
      0.02397626505078016
    ]
  ],
  "bias": [
    -0.28303104160942555,
    0.2830310416094253
  ],
  "l2": 0.001,
  "iterations": 400,
  "learningRate": 0.5,
  "trainCount": 1880,
  "classWeighted": true
}