{
  "version": "signal-lab-logreg/0.1.0",
  "featureNames": [
    "durationSec",
    "inputRms",
    "meanRms",
    "medianRms",
    "rmsEnergy",
    "peakAmplitude",
    "activeFrameRatio",
    "quietFrameRatio",
    "clippedFrameRatio",
    "silenceRatio",
    "noiseFloorRms",
    "signalToNoiseProxy",
    "zeroCrossingRate",
    "spectralCentroidHz",
    "spectralBandwidthHz",
    "spectralRolloffHz",
    "spectralFlatness",
    "spectralFlux",
    "breakCount",
    "pauseCount",
    "avgPauseLengthSec",
    "microBreakRatio",
    "voicingContinuityCoverage",
    "clarityScore",
    "breathinessProxy",
    "shimmerProxy",
    "amplitudeStability",
    "musicalityScore",
    "controlledExpressionScore",
    "residualInstabilityScore",
    "residualPitchInstability",
    "residualAmplitudeInstability",
    "isSilent",
    "isTooFaint",
    "pitchMeanHz",
    "pitchMeanHz__present",
    "pitchVariance",
    "pitchVariance__present",
    "pitchRangeSemitones",
    "pitchRangeSemitones__present",
    "pitchStability",
    "pitchStability__present",
    "jitter",
    "jitter__present",
    "pitchDrift",
    "pitchDrift__present",
    "pitchCoverage",
    "pitchCoverage__present",
    "longestStableSegmentSec",
    "longestStableSegmentSec__present",
    "onsetDelaySec",
    "onsetDelaySec__present",
    "smoothnessScore",
    "smoothnessScore__present",
    "vibratoRegularity",
    "vibratoRegularity__present",
    "attackConsistency",
    "attackConsistency__present"
  ],
  "labels": [
    "calm_regulated",
    "positive_activation",
    "high_arousal_negative",
    "low_mood",
    "tense_anxious",
    "neutral_close_to_usual"
  ],
  "standardizer": {
    "mean": [
      4.1622498287395295,
      0.021990431937321087,
      0.013817284648248902,
      0.005395573846446482,
      0.021990431937321087,
      0.19616108886000624,
      0.3001399653199141,
      0.6998600346800855,
      0.000008791981712678038,
      0.8615464472304705,
      0.00003255479024797792,
      76.45683433619445,
      0.06445478701351379,
      2168.124486608099,
      2681.4922328320336,
      1314.9191021954512,
      0.0022354057298380674,
      0.2531464090671972,
      2.746615087040619,
      1.2422630560928434,
      0.16180399742102017,
      0.028851501655480567,
      0.2174019066468938,
      0.26577765702539724,
      0.0022354057298380674,
      0.48353102784946783,
      0.5339810982604315,
      0.10466504054729545,
      0.670208304326538,
      0.8037557411258917,
      0.7712356261429414,
      0.985007317604593,
      0.09042553191489362,
      0.38104448742746616,
      219.05460742808953,
      0.8375241779497099,
      1542.500592056793,
      0.8375241779497099,
      5.1184486873596375,
      0.8375241779497099,
      0.7251975993675029,
      0.8375241779497099,
      0.08222522364022378,
      0.8375241779497099,
      2.5865915218528603,
      0.8375241779497099,
      0.26814870462638263,
      1,
      0.23516441005802677,
      0.8375241779497099,
      0.9946228239845064,
      0.875725338491296,
      0.14695491178622935,
      0.8375241779497099,
      0.16857844728539212,
      0.7340425531914894,
      0.10383043662289977,
      0.718568665377176
    ],
    "std": [
      0.6042126536071954,
      0.022286146619665496,
      0.013465603915452288,
      0.0064502060690101275,
      0.022286146619665496,
      0.21043671793397065,
      0.1889933786043287,
      0.18899337860432872,
      0.0003997210452494807,
      0.11142119288795403,
      0.00007745011993878685,
      35.87569924860205,
      0.01821340448363629,
      998.7712453973637,
      995.1330884719059,
      840.6853413466266,
      0.003200589160199145,
      0.10639432585133868,
      1.9131564126312608,
      1.2321503527288862,
      0.18319733144679207,
      0.028138726270203595,
      0.1785412880651583,
      0.17275358807609445,
      0.003200589160199145,
      0.2646228177425115,
      0.28187249915614493,
      0.0950121749415573,
      0.20816329152528315,
      0.1868836156970949,
      0.3719459694052328,
      0.09011214300364048,
      0.28679043758955114,
      0.4856434762545433,
      124.13039151387721,
      0.3688867431873559,
      2578.8535437765972,
      0.3688867431873559,
      4.150320172460106,
      0.3688867431873559,
      0.3289319232843037,
      0.3688867431873559,
      0.08415363598752419,
      0.3688867431873559,
      3.2788665637230765,
      0.3688867431873559,
      0.17241371072326636,
      1,
      0.17839555198864437,
      0.3688867431873559,
      0.42975466765664955,
      0.3298946347178298,
      0.10925073989475126,
      0.3688867431873559,
      0.18209439442748251,
      0.4418416948360625,
      0.21714971440857925,
      0.4496973854885403
    ]
  },
  "weights": [
    [
      1.435477348375035,
      -0.10506343806891656,
      -0.11455468519175149,
      -0.054530809000076556,
      -0.10506343806891656,
      -0.2403936638402245,
      -0.1916779124172393,
      0.19167791241723758,
      0.01906061639678234,
      0.42912111283229776,
      0.1501905513918714,
      -0.02398192461139126,
      0.35200442615593586,
      -0.05995138647901098,
      0.3827036162413395,
      -0.4049465150827542,
      0.1407374266127687,
      -0.7383986633626425,
      -0.16289772473741115,
      -0.28889393213871345,
      -0.10111205343594552,
      -0.08715530162447607,
      0.1074112037093872,
      -0.22103807873010578,
      0.1407374266127687,
      -1.1325820413949115,
      -0.32616337851816063,
      0.6683924648292525,
      -0.3124917217012295,
      0.14265863057271347,
      0.37151630143349806,
      0.07800101747383974,
      0.18782548871976934,
      0.46735565968907117,
      -0.2836985976618077,
      0.022037904603426375,
      0.1259517438016924,
      0.022037904603426375,
      0.1835902988747739,
      0.022037904603426375,
      -0.10366089834931319,
      0.022037904603426375,
      -0.08555237481361976,
      0.022037904603426375,
      -0.15656739935788758,
      0.022037904603426375,
      -0.14280165558942448,
      0,
      0.44050890876652604,
      0.022037904603426375,
      -0.3247774603216861,
      0.3904422462300563,
      0.40401126730040243,
      0.022037904603426375,
      0.12279245534371869,
      -0.22580945200303798,
      0.04421417366926378,
      -0.15155956789259745
    ],
    [
      -0.5264301974170599,
      0.08351316048386259,
      0.12764598216344464,
      -0.06204457605960407,
      0.08351316048386259,
      0.02780428706857815,
      0.2997820809185059,
      -0.29978208091850483,
      -0.020012274458258626,
      -0.35650100559331155,
      -0.2176848800705746,
      -0.08292943378131966,
      -0.17993859977348378,
      0.03343867011910509,
      -0.5282325544156191,
      0.1514845135462926,
      -0.022774253943428604,
      0.6171254408696136,
      -0.0772363304765466,
      -0.005970608749591271,
      -0.07531317303840424,
      0.07787424853843716,
      -0.3527363166655891,
      -0.014373914250465636,
      -0.022774253943428604,
      -0.06884688091992183,
      0.18142752574963067,
      0.333268023375966,
      0.006759846916024451,
      -0.0037159545621492035,
      -0.13276195632075077,
      -0.199911994805193,
      -0.12292163208213236,
      -0.12407407716845285,
      0.21273182525014436,
      0.0529384487697129,
      -0.1541276923340694,
      0.0529384487697129,
      0.03711173909627811,
      0.0529384487697129,
      -0.11723088402981989,
      0.0529384487697129,
      -0.1389103278749899,
      0.0529384487697129,
      0.003945581599198792,
      0.0529384487697129,
      -0.035944398661484925,
      0,
      0.046355226056599835,
      0.0529384487697129,
      -0.11246809604116496,
      0.23742489464827551,
      -0.4191297321016387,
      0.0529384487697129,
      0.08557926707860906,
      -0.1258761511276787,
      -0.02660542732611348,
      -0.08134091453607718
    ],
    [
      0.13107322625863516,
      0.15676397766355885,
      0.22868514735706355,
      0.07664370278118154,
      0.15676397766355885,
      0.7104915470042091,
      -0.029223203708031314,
      0.029223203708030963,
      0.025497204583961774,
      0.1091984056105374,
      -0.2208477231610115,
      -0.05112641912107483,
      -0.1632227102513071,
      -0.007327509692436539,
      -0.01600466731183055,
      0.9613458957191083,
      0.056443117948093445,
      0.4185060228457284,
      0.18170367249105251,
      0.21798507638340744,
      0.06231022197184668,
      -0.1818978742413158,
      -0.007217260441851896,
      -0.22661761513211176,
      0.056443117948093445,
      0.4022880730588925,
      0.251252013321196,
      -0.012678541322767183,
      0.14849712177572752,
      0.17086575773748544,
      0.043269833377410735,
      0.21317127286914883,
      0.24192496043765585,
      -0.45244507509760995,
      -0.6371009975873685,
      0.0032773744946559056,
      -0.7002639350638498,
      0.0032773744946559056,
      0.3126916664670727,
      0.0032773744946559056,
      -0.025516658661623042,
      0.0032773744946559056,
      -0.030871230966120697,
      0.0032773744946559056,
      0.29614368987131623,
      0.0032773744946559056,
      0.03480200571685421,
      0,
      -0.20955343704901364,
      0.0032773744946559056,
      0.19877446627384404,
      -0.10804310545077236,
      -0.46802522001267877,
      0.0032773744946559056,
      0.12641937379842086,
      0.13508131679325133,
      -0.0017850567034599885,
      0.25217322040947326
    ],
    [
      0.6042176629733851,
      -0.2656269276147726,
      -0.30031491430032153,
      0.25116053721729503,
      -0.2656269276147726,
      -0.26613443960840627,
      -0.30607869024481116,
      0.3060786902448128,
      -0.012258088259335182,
      0.17591249770776596,
      0.23182347325826533,
      -0.015491369272878645,
      0.1258869280004286,
      -0.3320700958984776,
      0.12100114037139822,
      -0.33642677247205044,
      0.22626471053074879,
      0.15014787533776944,
      0.05189690962035193,
      -0.0919821599680235,
      0.042537587706639166,
      0.0463088071328535,
      0.17535448816068336,
      -0.239563050556428,
      0.22626471053074879,
      0.5117022511389379,
      -0.16055290706696537,
      0.2421312194691057,
      -0.07200928163365237,
      -0.10597380552526799,
      -0.1819520647090947,
      0.02429789350906894,
      0.1152575070838556,
      0.0007198574090047224,
      0.31031361819606446,
      0.04361011625874435,
      0.3244154281971136,
      0.04361011625874435,
      -0.2892737017129572,
      0.04361011625874435,
      0.07089511907751922,
      0.04361011625874435,
      0.03550192869254332,
      0.04361011625874435,
      0.09475691846039869,
      0.04361011625874435,
      -0.2643840858925874,
      0,
      0.05481212395194689,
      0.04361011625874435,
      -0.030894685162421515,
      0.0716937832869271,
      0.22793479444133696,
      0.04361011625874435,
      -0.0708620045038866,
      0.0889116387854459,
      0.016088255666947555,
      -0.011901831035881043
    ],
    [
      -0.8087890411946214,
      0.06945680545098076,
      -0.03966949403165766,
      -0.33093615663705794,
      0.06945680545098076,
      0.21721068304555843,
      0.09971657670241298,
      -0.09971657670241131,
      -0.02428639484456563,
      -0.12621137408351432,
      0.4887371568774384,
      0.2548516626922518,
      0.052934481562814606,
      0.20671614207110367,
      0.19727983153485062,
      -0.5220450292160903,
      0.27456853836155737,
      -0.0057772069407806895,
      -0.18351023985226045,
      -0.1758913371671287,
      0.29296066816007116,
      0.12014620418669292,
      0.1828564180188692,
      0.25495434603360073,
      0.27456853836155737,
      0.09354002137416008,
      0.048919582372471876,
      -0.12688030071783493,
      0.15153911726355748,
      0.04179280572231464,
      0.1362745846054927,
      -0.33897921868979997,
      0.12265015908233047,
      -0.08737747943041334,
      0.047131080557791125,
      0.02163329509608206,
      0.41254447736545063,
      0.02163329509608206,
      -0.2335667480173069,
      0.02163329509608206,
      0.16201162630229735,
      0.02163329509608206,
      -0.17952337109975622,
      0.02163329509608206,
      -0.2876725422651642,
      0.02163329509608206,
      0.0005623556491213075,
      0,
      -0.2987599283080132,
      0.02163329509608206,
      0.6108775859041145,
      -0.6694201871668438,
      -0.593231917886697,
      0.02163329509608206,
      0.20113599000581095,
      0.1646800928655536,
      -0.059758998136924854,
      0.09014927551813608
    ],
    [
      -0.835548998995374,
      0.060956422085287176,
      0.0982079640032224,
      0.11970730169826227,
      0.060956422085287176,
      -0.4489784136697157,
      0.12748114874916308,
      -0.12748114874916536,
      0.011998936581414994,
      -0.23151963647377571,
      -0.4322185782959892,
      -0.08132251590558941,
      -0.18766452569438763,
      0.1591941798797164,
      -0.1567473664201368,
      0.15058790750549572,
      -0.6752395395097409,
      -0.44160346874967993,
      0.1900437129548129,
      0.3447529616400504,
      -0.22138325136420836,
      0.02472391600780837,
      -0.10566853278149776,
      0.44663831263551057,
      -0.6752395395097409,
      0.19389857674284475,
      0.005117164141827672,
      -1.1042328656337213,
      0.07770491737957469,
      -0.245627433945098,
      -0.23634669838655953,
      0.22342102964293514,
      -0.5447364832414783,
      0.19582111459840096,
      0.35062307124517306,
      -0.14349713922261678,
      -0.008520021966338488,
      -0.14349713922261678,
      -0.010553254707861108,
      -0.14349713922261678,
      0.013501695660932372,
      -0.14349713922261678,
      0.39935537606194454,
      -0.14349713922261678,
      0.0493937516921392,
      -0.14349713922261678,
      0.407765778777519,
      0,
      -0.0333628934180438,
      -0.14349713922261678,
      -0.3415118106526828,
      0.07790236845235089,
      0.8484408082592723,
      -0.14349713922261678,
      -0.46506508172267247,
      -0.036987445313526615,
      0.02784705283028538,
      -0.09752018246305268
    ]
  ],
  "bias": [
    -1.0888432845175076,
    0.6053799545824995,
    -0.030903023575708597,
    0.5578820468263467,
    0.6615251862607793,
    -0.7050408795764086
  ],
  "l2": 0.001,
  "iterations": 400,
  "learningRate": 0.5,
  "trainCount": 2068,
  "classWeighted": true
}